digraph Tree {
node [shape=box] ;
0 [label="y**2 <= 0.429\nentropy = 0.971\nsamples = 5000\nvalue = [3003, 1997]"] ;
1 [label="x**2 <= 0.397\nentropy = 0.973\nsamples = 3300\nvalue = [1333, 1967]"] ;
0 -> 1 [labeldistance=2.5, labelangle=45, headlabel="True"] ;
2 [label="xy <= -0.247\nentropy = 0.478\nsamples = 2118\nvalue = [218, 1900]"] ;
1 -> 2 ;
3 [label="entropy = 0.0\nsamples = 94\nvalue = [94, 0]"] ;
2 -> 3 ;
4 [label="xy <= 0.223\nentropy = 0.332\nsamples = 2024\nvalue = [124, 1900]"] ;
2 -> 4 ;
5 [label="xy <= -0.214\nentropy = 0.07\nsamples = 1896\nvalue = [16, 1880]"] ;
4 -> 5 ;
6 [label="y**2 <= 0.353\nentropy = 0.773\nsamples = 44\nvalue = [10, 34]"] ;
5 -> 6 ;
7 [label="x <= 0.579\nentropy = 0.552\nsamples = 39\nvalue = [5, 34]"] ;
6 -> 7 ;
8 [label="x**2 <= 0.368\nentropy = 0.31\nsamples = 36\nvalue = [2, 34]"] ;
7 -> 8 ;
9 [label="y**2 <= 0.34\nentropy = 0.187\nsamples = 35\nvalue = [1, 34]"] ;
8 -> 9 ;
10 [label="entropy = 0.0\nsamples = 33\nvalue = [0, 33]"] ;
9 -> 10 ;
11 [label="x <= -0.385\nentropy = 1.0\nsamples = 2\nvalue = [1, 1]"] ;
9 -> 11 ;
12 [label="entropy = 0.0\nsamples = 1\nvalue = [1, 0]"] ;
11 -> 12 ;
13 [label="entropy = 0.0\nsamples = 1\nvalue = [0, 1]"] ;
11 -> 13 ;
14 [label="entropy = 0.0\nsamples = 1\nvalue = [1, 0]"] ;
8 -> 14 ;
15 [label="entropy = 0.0\nsamples = 3\nvalue = [3, 0]"] ;
7 -> 15 ;
16 [label="entropy = 0.0\nsamples = 5\nvalue = [5, 0]"] ;
6 -> 16 ;
17 [label="y, <= 0.645\nentropy = 0.031\nsamples = 1852\nvalue = [6, 1846]"] ;
5 -> 17 ;
18 [label="xy <= 0.2\nentropy = 0.012\nsamples = 1843\nvalue = [2, 1841]"] ;
17 -> 18 ;
19 [label="entropy = 0.0\nsamples = 1800\nvalue = [0, 1800]"] ;
18 -> 19 ;
20 [label="y, <= -0.623\nentropy = 0.271\nsamples = 43\nvalue = [2, 41]"] ;
18 -> 20 ;
21 [label="entropy = 0.0\nsamples = 1\nvalue = [1, 0]"] ;
20 -> 21 ;
22 [label="x <= 0.614\nentropy = 0.162\nsamples = 42\nvalue = [1, 41]"] ;
20 -> 22 ;
23 [label="entropy = 0.0\nsamples = 40\nvalue = [0, 40]"] ;
22 -> 23 ;
24 [label="xy <= 0.208\nentropy = 1.0\nsamples = 2\nvalue = [1, 1]"] ;
22 -> 24 ;
25 [label="entropy = 0.0\nsamples = 1\nvalue = [0, 1]"] ;
24 -> 25 ;
26 [label="entropy = 0.0\nsamples = 1\nvalue = [1, 0]"] ;
24 -> 26 ;
27 [label="x**2 <= 0.078\nentropy = 0.991\nsamples = 9\nvalue = [4, 5]"] ;
17 -> 27 ;
28 [label="entropy = 0.0\nsamples = 5\nvalue = [0, 5]"] ;
27 -> 28 ;
29 [label="entropy = 0.0\nsamples = 4\nvalue = [4, 0]"] ;
27 -> 29 ;
30 [label="xy <= 0.25\nentropy = 0.625\nsamples = 128\nvalue = [108, 20]"] ;
4 -> 30 ;
31 [label="y**2 <= 0.333\nentropy = 0.996\nsamples = 43\nvalue = [23, 20]"] ;
30 -> 31 ;
32 [label="x**2 <= 0.328\nentropy = 0.894\nsamples = 29\nvalue = [9, 20]"] ;
31 -> 32 ;
33 [label="xy <= 0.245\nentropy = 0.559\nsamples = 23\nvalue = [3, 20]"] ;
32 -> 33 ;
34 [label="entropy = 0.0\nsamples = 14\nvalue = [0, 14]"] ;
33 -> 34 ;
35 [label="y**2 <= 0.292\nentropy = 0.918\nsamples = 9\nvalue = [3, 6]"] ;
33 -> 35 ;
36 [label="y**2 <= 0.226\nentropy = 0.592\nsamples = 7\nvalue = [1, 6]"] ;
35 -> 36 ;
37 [label="entropy = 0.0\nsamples = 1\nvalue = [1, 0]"] ;
36 -> 37 ;
38 [label="entropy = 0.0\nsamples = 6\nvalue = [0, 6]"] ;
36 -> 38 ;
39 [label="entropy = 0.0\nsamples = 2\nvalue = [2, 0]"] ;
35 -> 39 ;
40 [label="entropy = 0.0\nsamples = 6\nvalue = [6, 0]"] ;
32 -> 40 ;
41 [label="entropy = 0.0\nsamples = 14\nvalue = [14, 0]"] ;
31 -> 41 ;
42 [label="entropy = 0.0\nsamples = 85\nvalue = [85, 0]"] ;
30 -> 42 ;
43 [label="x**2 <= 0.497\nentropy = 0.314\nsamples = 1182\nvalue = [1115, 67]"] ;
1 -> 43 ;
44 [label="y**2 <= 0.064\nentropy = 0.862\nsamples = 235\nvalue = [168, 67]"] ;
43 -> 44 ;
45 [label="y**2 <= 0.017\nentropy = 0.691\nsamples = 81\nvalue = [15, 66]"] ;
44 -> 45 ;
46 [label="entropy = 0.0\nsamples = 45\nvalue = [0, 45]"] ;
45 -> 46 ;
47 [label="x**2 <= 0.445\nentropy = 0.98\nsamples = 36\nvalue = [15, 21]"] ;
45 -> 47 ;
48 [label="entropy = 0.0\nsamples = 18\nvalue = [0, 18]"] ;
47 -> 48 ;
49 [label="x <= 0.676\nentropy = 0.65\nsamples = 18\nvalue = [15, 3]"] ;
47 -> 49 ;
50 [label="entropy = 0.0\nsamples = 11\nvalue = [11, 0]"] ;
49 -> 50 ;
51 [label="y**2 <= 0.031\nentropy = 0.985\nsamples = 7\nvalue = [4, 3]"] ;
49 -> 51 ;
52 [label="x**2 <= 0.485\nentropy = 0.811\nsamples = 4\nvalue = [1, 3]"] ;
51 -> 52 ;
53 [label="entropy = 0.0\nsamples = 3\nvalue = [0, 3]"] ;
52 -> 53 ;
54 [label="entropy = 0.0\nsamples = 1\nvalue = [1, 0]"] ;
52 -> 54 ;
55 [label="entropy = 0.0\nsamples = 3\nvalue = [3, 0]"] ;
51 -> 55 ;
56 [label="x**2 <= 0.402\nentropy = 0.057\nsamples = 154\nvalue = [153, 1]"] ;
44 -> 56 ;
57 [label="y**2 <= 0.1\nentropy = 0.503\nsamples = 9\nvalue = [8, 1]"] ;
56 -> 57 ;
58 [label="entropy = 0.0\nsamples = 1\nvalue = [0, 1]"] ;
57 -> 58 ;
59 [label="entropy = 0.0\nsamples = 8\nvalue = [8, 0]"] ;
57 -> 59 ;
60 [label="entropy = 0.0\nsamples = 145\nvalue = [145, 0]"] ;
56 -> 60 ;
61 [label="entropy = 0.0\nsamples = 947\nvalue = [947, 0]"] ;
43 -> 61 ;
62 [label="y**2 <= 0.492\nentropy = 0.128\nsamples = 1700\nvalue = [1670, 30]"] ;
0 -> 62 [labeldistance=2.5, labelangle=-45, headlabel="False"] ;
63 [label="x**2 <= 0.04\nentropy = 0.581\nsamples = 216\nvalue = [186, 30]"] ;
62 -> 63 ;
64 [label="y, <= -0.684\nentropy = 0.533\nsamples = 33\nvalue = [4, 29]"] ;
63 -> 64 ;
65 [label="x**2 <= 0.013\nentropy = 1.0\nsamples = 8\nvalue = [4, 4]"] ;
64 -> 65 ;
66 [label="entropy = 0.0\nsamples = 4\nvalue = [0, 4]"] ;
65 -> 66 ;
67 [label="entropy = 0.0\nsamples = 4\nvalue = [4, 0]"] ;
65 -> 67 ;
68 [label="entropy = 0.0\nsamples = 25\nvalue = [0, 25]"] ;
64 -> 68 ;
69 [label="x**2 <= 0.049\nentropy = 0.049\nsamples = 183\nvalue = [182, 1]"] ;
63 -> 69 ;
70 [label="x <= 0.219\nentropy = 0.722\nsamples = 5\nvalue = [4, 1]"] ;
69 -> 70 ;
71 [label="entropy = 0.0\nsamples = 4\nvalue = [4, 0]"] ;
70 -> 71 ;
72 [label="entropy = 0.0\nsamples = 1\nvalue = [0, 1]"] ;
70 -> 72 ;
73 [label="entropy = 0.0\nsamples = 178\nvalue = [178, 0]"] ;
69 -> 73 ;
74 [label="entropy = 0.0\nsamples = 1484\nvalue = [1484, 0]"] ;
62 -> 74 ;
}